SVM-light Version V6.20
0 # kernel type
3 # kernel parameter -d 
1 # kernel parameter -g 
1 # kernel parameter -s 
1 # kernel parameter -r 
empty# kernel parameter -u 
65 # highest feature index 
35 # number of training documents 
2 # number of support vectors plus 1 
0 # threshold b, each following line is a SV (starting with alpha*y)
1 1:-0.21948281 2:0.55218095 3:-0.27670076 4:0.11460499 5:-0.22222167 11:-0.020061634 12:0.5475198 13:-0.26663515 14:0.071305417 15:-0.019048881 16:0.16536652 17:-0.34377176 18:-0.88855922 19:-0.37390983 20:0.1575726 21:0.42563319 22:1.215183 23:0.72081536 24:0.0046822336 25:0.27733576 26:0.19932535 27:0.21872717 28:0.080242589 29:0.15533178 30:-0.66658002 31:0.015251691 32:-0.2177161 33:0.031049065 34:0.22129481 35:-0.12607746 36:0.53712422 37:-1.0153815 38:0.00045763291 39:0.12872007 40:0.10664096 41:1.1015152 42:1.10151 43:0.73281485 44:-0.39633775 45:-0.55672944 46:0.12094142 47:-0.11355519 48:0.25862917 49:-0.2020898 50:0.074224301 51:0.51103771 52:0.40164706 53:0.35966003 54:-0.30603224 55:0.42422834 56:0.76902467 57:0.78651613 58:-0.084720112 59:-1.3472865 60:0.20247005 61:0.8455134 62:0.12384706 63:-0.58057845 64:0.045629058 #
