SVM-light Version V6.20
0 # kernel type
3 # kernel parameter -d 
1 # kernel parameter -g 
1 # kernel parameter -s 
1 # kernel parameter -r 
empty# kernel parameter -u 
65 # highest feature index 
10 # number of training documents 
2 # number of support vectors plus 1 
0 # threshold b, each following line is a SV (starting with alpha*y)
1 1:-0.0088746492 2:0.10385022 3:-0.011245085 4:0.070968963 5:-0.0016662743 11:0.01214606 12:0.11029387 13:0.017614398 14:0.060625724 15:0.021549344 16:0.043162074 17:0.04047614 18:-0.2445538 19:-0.22039448 20:0.042507056 21:0.10132477 22:0.28220421 23:0.23949026 24:0.029580332 25:0.25187021 26:0.14356254 27:0.24153538 28:0.14901271 29:0.068611547 30:0.18672204 31:0.095118947 32:0.20227417 33:0.13163677 34:0.049128983 35:0.1517867 36:-0.0049146549 37:0.13951664 38:0.10242939 39:0.082751572 40:0.0024474983 41:0.35587066 42:0.35587078 43:0.11269535 44:0.070701167 45:0.0057746922 46:0.13171826 47:0.10145307 48:0.045797165 49:0.070701733 50:0.11200725 51:0.055648927 52:0.31603232 53:0.11125186 54:0.10013267 55:0.053691253 56:0.032878492 57:0.029807637 58:-0.12217559 59:-0.2506327 60:0.054419521 61:0.12771872 62:0.095979534 63:0.077580251 64:0.08792448 #
