SVM-light Version V6.20
0 # kernel type
3 # kernel parameter -d 
1 # kernel parameter -g 
1 # kernel parameter -s 
1 # kernel parameter -r 
empty# kernel parameter -u 
65 # highest feature index 
57 # number of training documents 
2 # number of support vectors plus 1 
0 # threshold b, each following line is a SV (starting with alpha*y)
1 1:-0.41626453 2:0.44274279 3:-0.93880963 4:0.50740761 5:-0.3805683 11:-0.059689518 12:0.43080911 13:-0.22856031 14:0.073149927 15:0.0065861093 16:0.35480192 17:-0.1256543 18:-1.2485998 19:-0.82111353 20:0.33283943 21:-0.18974075 22:1.2380003 23:1.7715361 24:-0.17122895 25:0.17331968 26:0.58264738 27:0.45283377 28:0.15393953 29:-0.039557606 30:0.86712408 31:-0.51010162 32:-0.17035188 33:0.023899799 34:-0.22949412 35:-0.0081946757 36:0.12560858 37:-0.94198608 38:-0.43251625 39:-0.098036945 40:-1.1088909 41:1.1483727 42:1.1483771 43:0.20867549 44:-0.57315785 45:-0.14288473 46:0.38992238 47:0.27971834 48:-0.07396511 49:0.079142757 50:0.71857381 51:0.010916937 52:0.75872546 53:0.8747716 54:0.47490153 55:0.47293487 56:-0.11242646 57:0.98447645 58:0.3948752 59:-1.5185109 60:-0.073722474 61:1.1974193 62:-0.047566544 63:-0.21742249 64:-0.2703045 #
