SVM-light Version V6.20
0 # kernel type
3 # kernel parameter -d 
1 # kernel parameter -g 
1 # kernel parameter -s 
1 # kernel parameter -r 
empty# kernel parameter -u 
46 # highest feature index 
88 # number of training documents 
2 # number of support vectors plus 1 
0 # threshold b, each following line is a SV (starting with alpha*y)
1 1:1.9970672 2:-3.0596602 3:0.064775988 4:0.85808605 8:-0.21327031 9:0.0098601459 10:0.10698769 11:1.6736647 12:0.29681849 13:0.10356258 14:-1.6108279 15:1.6323735 16:0.44374746 17:-3.9472368 18:-2.3306632 19:0.57510704 23:1.2300572 24:4.1410909 25:-0.54958433 26:1.3788967 27:-0.95501417 28:1.6788845 29:-1.4944086 30:0.83200067 31:2.2233305 32:3.0258162 33:6.9870725 34:-7.8474011 38:0.97317785 39:-6.0868015 40:-0.79811758 41:1.1158154 42:-0.097357437 43:1.3300766 44:-0.92236727 45:-0.49284962 #
