SVM-light Version V6.20
0 # kernel type
3 # kernel parameter -d 
1 # kernel parameter -g 
1 # kernel parameter -s 
1 # kernel parameter -r 
empty# kernel parameter -u 
65 # highest feature index 
60 # number of training documents 
2 # number of support vectors plus 1 
0 # threshold b, each following line is a SV (starting with alpha*y)
1 1:2.032021 2:6.2146039 3:-1.7154121 4:3.4543066 5:2.8579619 11:-2.1225882 12:6.1945624 13:-0.13886695 14:4.563314 15:-1.5041662 16:0.47728607 17:6.7372842 18:2.4273922 19:-1.2841419 20:1.5903177 21:-2.5906065 22:3.5176477 23:3.423665 24:-2.2154105 25:-7.107132 26:4.8324614 27:-4.2798076 28:-1.3432665 29:3.6873512 30:0.64704329 31:-0.35361037 32:-0.71567917 33:-0.52583081 34:1.7309839 35:-0.28292736 36:3.0908754 37:1.67642 38:-2.7598498 39:4.3130589 40:0.092220575 41:11.850077 42:11.850117 43:0.045808464 44:0.021837704 45:-0.037429903 46:-2.4641175 47:3.6940949 48:-1.6829579 49:1.5293993 50:0.04371959 51:4.5774403 52:1.8300723 53:2.3388178 54:0.56984091 55:1.0851791 56:3.0707722 57:5.8547177 58:-0.68903756 59:-13.144432 60:7.3767529 61:-1.4190776 62:0.1853817 63:2.401294 64:2.0512519 #
